digraph Tree {
node [shape=box, style="rounded", color="black", fontname=helvetica] ;
edge [fontname=helvetica] ;
0 [label="approx_value <= 1.2\ngini = 0.5\nsamples = 24\nvalue = [17.3, 23.8]"] ;
1 [label="approx_nrg_reward <= 0.0\ngini = 0.2\nsamples = 8\nvalue = [2.5, 21.1]"] ;
0 -> 1 [labeldistance=2.5, labelangle=45, headlabel="True"] ;
2 [label="difficulty <= 9192916.0\ngini = 0.1\nsamples = 7\nvalue = [1.2, 21.1]"] ;
1 -> 2 ;
3 [label="block_size <= 2429.7\ngini = 0.2\nsamples = 4\nvalue = [1.2, 7.9]"] ;
2 -> 3 ;
4 [label="gini = 0.0\nsamples = 1\nvalue = [0.0, 5.3]"] ;
3 -> 4 ;
5 [label="block_time <= 18.0\ngini = 0.4\nsamples = 3\nvalue = [1.2, 2.6]"] ;
3 -> 5 ;
6 [label="gini = 0.0\nsamples = 1\nvalue = [0.0, 2.6]"] ;
5 -> 6 ;
7 [label="gini = 0.0\nsamples = 2\nvalue = [1.2, 0.0]"] ;
5 -> 7 ;
8 [label="gini = 0.0\nsamples = 3\nvalue = [0.0, 13.2]"] ;
2 -> 8 ;
9 [label="gini = 0.0\nsamples = 1\nvalue = [1.2, 0.0]"] ;
1 -> 9 ;
10 [label="block_size <= 2905.9\ngini = 0.3\nsamples = 16\nvalue = [14.8, 2.6]"] ;
0 -> 10 [labeldistance=2.5, labelangle=-45, headlabel="False"] ;
11 [label="block_nrg_consumed <= 89651.2\ngini = 0.5\nsamples = 5\nvalue = [2.5, 2.6]"] ;
10 -> 11 ;
12 [label="gini = -0.0\nsamples = 4\nvalue = [2.5, 0.0]"] ;
11 -> 12 ;
13 [label="gini = 0.0\nsamples = 1\nvalue = [0.0, 2.6]"] ;
11 -> 13 ;
14 [label="gini = 0.0\nsamples = 11\nvalue = [12.3, 0.0]"] ;
10 -> 14 ;
}