digraph Tree {
node [shape=box, style="rounded", color="black", fontname=helvetica] ;
edge [fontname=helvetica] ;
0 [label="approx_value <= 1438.0\nmse = 4.1\nsamples = 104\nvalue = 0.3"] ;
1 [label="nrg_limit <= 14998955.5\nmse = 0.9\nsamples = 97\nvalue = 0.2"] ;
0 -> 1 [labeldistance=2.5, labelangle=45, headlabel="True"] ;
2 [label="num_transactions <= 34510.5\nmse = 0.9\nsamples = 3\nvalue = 1.5"] ;
1 -> 2 ;
3 [label="mse = 0.0\nsamples = 1\nvalue = -0.3"] ;
2 -> 3 ;
4 [label="mse = 0.0\nsamples = 2\nvalue = 2.0"] ;
2 -> 4 ;
5 [label="block_nrg_consumed <= 13441.0\nmse = 0.8\nsamples = 94\nvalue = 0.1"] ;
1 -> 5 ;
6 [label="difficulty <= 15949996.0\nmse = 0.4\nsamples = 76\nvalue = 0.0"] ;
5 -> 6 ;
7 [label="mse = 0.4\nsamples = 48\nvalue = -0.1"] ;
6 -> 7 ;
8 [label="mse = 0.3\nsamples = 28\nvalue = 0.3"] ;
6 -> 8 ;
9 [label="block_nrg_consumed <= 13513.0\nmse = 2.5\nsamples = 18\nvalue = 0.6"] ;
5 -> 9 ;
10 [label="mse = 0.9\nsamples = 2\nvalue = 4.7"] ;
9 -> 10 ;
11 [label="mse = 0.5\nsamples = 16\nvalue = 0.1"] ;
9 -> 11 ;
12 [label="approx_value <= 1531.0\nmse = 43.7\nsamples = 7\nvalue = 1.9"] ;
0 -> 12 [labeldistance=2.5, labelangle=-45, headlabel="False"] ;
13 [label="mse = 0.0\nsamples = 1\nvalue = 23.8"] ;
12 -> 13 ;
14 [label="difficulty <= 14437118.0\nmse = 0.0\nsamples = 6\nvalue = -0.1"] ;
12 -> 14 ;
15 [label="num_transactions <= 69781.5\nmse = 0.0\nsamples = 3\nvalue = 0.1"] ;
14 -> 15 ;
16 [label="mse = 0.0\nsamples = 2\nvalue = 0.2"] ;
15 -> 16 ;
17 [label="mse = 0.0\nsamples = 1\nvalue = -0.1"] ;
15 -> 17 ;
18 [label="nrg_price <= 5782677504.0\nmse = 0.0\nsamples = 3\nvalue = -0.3"] ;
14 -> 18 ;
19 [label="mse = 0.0\nsamples = 2\nvalue = -0.3"] ;
18 -> 19 ;
20 [label="mse = 0.0\nsamples = 1\nvalue = -0.1"] ;
18 -> 20 ;
}