digraph Tree {
node [shape=box, style="rounded", color="black", fontname=helvetica] ;
edge [fontname=helvetica] ;
0 [label="block_nrg_consumed <= 59560.5\ngini = 0.5\nsamples = 37\nvalue = [32.3, 24.0]"] ;
1 [label="block_size <= 2337.4\ngini = 0.3\nsamples = 10\nvalue = [3.3, 13.9]"] ;
0 -> 1 [labeldistance=2.5, labelangle=45, headlabel="True"] ;
2 [label="gini = 0.0\nsamples = 2\nvalue = [3.3, 0.0]"] ;
1 -> 2 ;
3 [label="gini = 0.0\nsamples = 8\nvalue = [0.0, 13.9]"] ;
1 -> 3 ;
4 [label="transaction_nrg_consumed <= 50954.4\ngini = 0.4\nsamples = 27\nvalue = [29.0, 10.1]"] ;
0 -> 4 [labeldistance=2.5, labelangle=-45, headlabel="False"] ;
5 [label="approx_value <= 1.6\ngini = 0.4\nsamples = 26\nvalue = [29.0, 8.8]"] ;
4 -> 5 ;
6 [label="approx_nrg_reward <= 0.0\ngini = 0.5\nsamples = 8\nvalue = [5.0, 7.6]"] ;
5 -> 6 ;
7 [label="block_time <= 16.3\ngini = 0.3\nsamples = 6\nvalue = [1.7, 7.6]"] ;
6 -> 7 ;
8 [label="gini = 0.0\nsamples = 1\nvalue = [0.8, 0.0]"] ;
7 -> 8 ;
9 [label="difficulty <= 10525571.0\ngini = 0.2\nsamples = 5\nvalue = [0.8, 7.6]"] ;
7 -> 9 ;
10 [label="gini = 0.0\nsamples = 4\nvalue = [0.0, 7.6]"] ;
9 -> 10 ;
11 [label="gini = -0.0\nsamples = 1\nvalue = [0.8, 0.0]"] ;
9 -> 11 ;
12 [label="gini = 0.0\nsamples = 2\nvalue = [3.3, 0.0]"] ;
6 -> 12 ;
13 [label="block_time <= 19.9\ngini = 0.1\nsamples = 18\nvalue = [24.0, 1.3]"] ;
5 -> 13 ;
14 [label="gini = 0.0\nsamples = 15\nvalue = [20.7, 0.0]"] ;
13 -> 14 ;
15 [label="nrg_limit <= 14998759.0\ngini = 0.4\nsamples = 3\nvalue = [3.3, 1.3]"] ;
13 -> 15 ;
16 [label="gini = 0.0\nsamples = 1\nvalue = [0.0, 1.3]"] ;
15 -> 16 ;
17 [label="gini = -0.0\nsamples = 2\nvalue = [3.3, 0.0]"] ;
15 -> 17 ;
18 [label="gini = 0.0\nsamples = 1\nvalue = [0.0, 1.3]"] ;
4 -> 18 ;
}