digraph Tree {
node [shape=box, style="rounded", color="black", fontname=helvetica] ;
edge [fontname=helvetica] ;
0 [label="approx_value <= 1446.5\nmse = 4.3\nsamples = 112\nvalue = 0.3"] ;
1 [label="difficulty <= 9527404.0\nmse = 1.4\nsamples = 104\nvalue = 0.2"] ;
0 -> 1 [labeldistance=2.5, labelangle=45, headlabel="True"] ;
2 [label="nrg_limit <= 15000088.5\nmse = 4.9\nsamples = 20\nvalue = 1.0"] ;
1 -> 2 ;
3 [label="num_transactions <= 35463.5\nmse = 0.4\nsamples = 16\nvalue = 0.1"] ;
2 -> 3 ;
4 [label="mse = 0.4\nsamples = 7\nvalue = 0.4"] ;
3 -> 4 ;
5 [label="mse = 0.2\nsamples = 9\nvalue = -0.3"] ;
3 -> 5 ;
6 [label="nrg_price <= 6519149056.0\nmse = 7.5\nsamples = 4\nvalue = 4.0"] ;
2 -> 6 ;
7 [label="mse = 1.5\nsamples = 3\nvalue = 5.6"] ;
6 -> 7 ;
8 [label="mse = 0.0\nsamples = 1\nvalue = 0.0"] ;
6 -> 8 ;
9 [label="nrg_limit <= 15000076.0\nmse = 0.5\nsamples = 84\nvalue = 0.0"] ;
1 -> 9 ;
10 [label="difficulty <= 10877060.0\nmse = 0.6\nsamples = 64\nvalue = 0.1"] ;
9 -> 10 ;
11 [label="mse = 1.4\nsamples = 17\nvalue = 0.5"] ;
10 -> 11 ;
12 [label="mse = 0.3\nsamples = 47\nvalue = 0.0"] ;
10 -> 12 ;
13 [label="difficulty <= 10028239.5\nmse = 0.2\nsamples = 20\nvalue = -0.2"] ;
9 -> 13 ;
14 [label="mse = 0.1\nsamples = 6\nvalue = -0.5"] ;
13 -> 14 ;
15 [label="mse = 0.1\nsamples = 14\nvalue = -0.1"] ;
13 -> 15 ;
16 [label="approx_value <= 1473.5\nmse = 45.8\nsamples = 8\nvalue = 2.4"] ;
0 -> 16 [labeldistance=2.5, labelangle=-45, headlabel="False"] ;
17 [label="mse = 0.0\nsamples = 1\nvalue = 23.8"] ;
16 -> 17 ;
18 [label="difficulty <= 18836988.0\nmse = 0.2\nsamples = 7\nvalue = 0.3"] ;
16 -> 18 ;
19 [label="block_size <= 2503.5\nmse = 0.0\nsamples = 6\nvalue = -0.1"] ;
18 -> 19 ;
20 [label="mse = 0.0\nsamples = 2\nvalue = 0.1"] ;
19 -> 20 ;
21 [label="mse = 0.0\nsamples = 4\nvalue = -0.2"] ;
19 -> 21 ;
22 [label="mse = 0.0\nsamples = 1\nvalue = 0.8"] ;
18 -> 22 ;
}