digraph Tree {
node [shape=box, style="rounded", color="black", fontname=helvetica] ;
edge [fontname=helvetica] ;
0 [label="approx_nrg_reward <= 0.0\ngini = 0.5\nsamples = 301\nvalue = [235.6, 244.8]"] ;
1 [label="block_size <= 3795.2\ngini = 0.5\nsamples = 203\nvalue = [152.7, 205.7]"] ;
0 -> 1 [labeldistance=2.5, labelangle=45, headlabel="True"] ;
2 [label="nrg_limit <= 15000059.0\ngini = 0.5\nsamples = 170\nvalue = [124.4, 191.0]"] ;
1 -> 2 ;
3 [label="difficulty <= 9224037.5\ngini = 0.4\nsamples = 77\nvalue = [48.4, 122.4]"] ;
2 -> 3 ;
4 [label="approx_value <= 1.0\ngini = 0.1\nsamples = 24\nvalue = [5.7, 80.8]"] ;
3 -> 4 ;
5 [label="gini = 0.0\nsamples = 2\nvalue = [1.9, 0.0]"] ;
4 -> 5 ;
6 [label="block_nrg_consumed <= 82921.2\ngini = 0.1\nsamples = 22\nvalue = [3.8, 80.8]"] ;
4 -> 6 ;
7 [label="gini = 0.0\nsamples = 1\nvalue = [1.3, 0.0]"] ;
6 -> 7 ;
8 [label="nrg_limit <= 14999160.0\ngini = 0.1\nsamples = 21\nvalue = [2.5, 80.8]"] ;
6 -> 8 ;
9 [label="gini = 0.0\nsamples = 14\nvalue = [0.0, 56.3]"] ;
8 -> 9 ;
10 [label="block_time <= 18.0\ngini = 0.2\nsamples = 7\nvalue = [2.5, 24.5]"] ;
8 -> 10 ;
11 [label="difficulty <= 9054649.0\ngini = 0.4\nsamples = 3\nvalue = [2.5, 7.3]"] ;
10 -> 11 ;
12 [label="gini = 0.0\nsamples = 1\nvalue = [0.0, 7.3]"] ;
11 -> 12 ;
13 [label="gini = -0.0\nsamples = 2\nvalue = [2.5, 0.0]"] ;
11 -> 13 ;
14 [label="gini = 0.0\nsamples = 4\nvalue = [0.0, 17.1]"] ;
10 -> 14 ;
15 [label="block_size <= 2545.9\ngini = 0.5\nsamples = 53\nvalue = [42.7, 41.6]"] ;
3 -> 15 ;
16 [label="block_time <= 20.8\ngini = 0.4\nsamples = 5\nvalue = [4.4, 12.2]"] ;
15 -> 16 ;
17 [label="approx_value <= 5.8\ngini = 0.5\nsamples = 4\nvalue = [4.4, 2.4]"] ;
16 -> 17 ;
18 [label="approx_value <= 1.4\ngini = 0.5\nsamples = 3\nvalue = [1.9, 2.4]"] ;
17 -> 18 ;
19 [label="gini = -0.0\nsamples = 2\nvalue = [1.9, 0.0]"] ;
18 -> 19 ;
20 [label="gini = 0.0\nsamples = 1\nvalue = [0.0, 2.4]"] ;
18 -> 20 ;
21 [label="gini = -0.0\nsamples = 1\nvalue = [2.5, 0.0]"] ;
17 -> 21 ;
22 [label="gini = 0.0\nsamples = 1\nvalue = [0.0, 9.8]"] ;
16 -> 22 ;
23 [label="nrg_limit <= 15000007.5\ngini = 0.5\nsamples = 48\nvalue = [38.3, 29.4]"] ;
15 -> 23 ;
24 [label="nrg_limit <= 14999158.5\ngini = 0.5\nsamples = 46\nvalue = [38.3, 22.0]"] ;
23 -> 24 ;
25 [label="approx_value <= 1.0\ngini = 0.5\nsamples = 24\nvalue = [16.3, 22.0]"] ;
24 -> 25 ;
26 [label="gini = 0.0\nsamples = 6\nvalue = [5.0, 0.0]"] ;
25 -> 26 ;
27 [label="nrg_limit <= 14996517.0\ngini = 0.4\nsamples = 18\nvalue = [11.3, 22.0]"] ;
25 -> 27 ;
28 [label="gini = 0.0\nsamples = 2\nvalue = [3.1, 0.0]"] ;
27 -> 28 ;
29 [label="nrg_limit <= 14997715.5\ngini = 0.4\nsamples = 16\nvalue = [8.2, 22.0]"] ;
27 -> 29 ;
30 [label="block_time <= 19.7\ngini = 0.1\nsamples = 5\nvalue = [1.3, 14.7]"] ;
29 -> 30 ;
31 [label="block_size <= 3032.7\ngini = 0.1\nsamples = 4\nvalue = [0.6, 14.7]"] ;
30 -> 31 ;
32 [label="gini = 0.0\nsamples = 1\nvalue = [0.6, 0.0]"] ;
31 -> 32 ;
33 [label="gini = 0.0\nsamples = 3\nvalue = [0.0, 14.7]"] ;
31 -> 33 ;
34 [label="gini = -0.0\nsamples = 1\nvalue = [0.6, 0.0]"] ;
30 -> 34 ;
35 [label="block_size <= 3272.3\ngini = 0.5\nsamples = 11\nvalue = [6.9, 7.3]"] ;
29 -> 35 ;
36 [label="block_nrg_consumed <= 153098.7\ngini = 0.4\nsamples = 7\nvalue = [3.8, 7.3]"] ;
35 -> 36 ;
37 [label="block_nrg_consumed <= 95027.5\ngini = 0.5\nsamples = 5\nvalue = [3.1, 2.4]"] ;
36 -> 37 ;
38 [label="gini = 0.0\nsamples = 1\nvalue = [0.0, 2.4]"] ;
37 -> 38 ;
39 [label="gini = -0.0\nsamples = 4\nvalue = [3.1, 0.0]"] ;
37 -> 39 ;
40 [label="approx_value <= 1.2\ngini = 0.2\nsamples = 2\nvalue = [0.6, 4.9]"] ;
36 -> 40 ;
41 [label="gini = 0.0\nsamples = 1\nvalue = [0.0, 4.9]"] ;
40 -> 41 ;
42 [label="gini = -0.0\nsamples = 1\nvalue = [0.6, 0.0]"] ;
40 -> 42 ;
43 [label="gini = 0.0\nsamples = 4\nvalue = [3.1, 0.0]"] ;
35 -> 43 ;
44 [label="gini = 0.0\nsamples = 22\nvalue = [22.0, 0.0]"] ;
24 -> 44 ;
45 [label="gini = -0.0\nsamples = 2\nvalue = [0.0, 7.3]"] ;
23 -> 45 ;
46 [label="difficulty <= 9234071.5\ngini = 0.5\nsamples = 93\nvalue = [76.0, 68.6]"] ;
2 -> 46 ;
47 [label="nrg_limit <= 15000351.5\ngini = 0.2\nsamples = 24\nvalue = [7.5, 56.3]"] ;
46 -> 47 ;
48 [label="gini = 0.0\nsamples = 1\nvalue = [1.9, 0.0]"] ;
47 -> 48 ;
49 [label="difficulty <= 9180842.5\ngini = 0.2\nsamples = 23\nvalue = [5.7, 56.3]"] ;
47 -> 49 ;
50 [label="gini = -0.0\nsamples = 12\nvalue = [0.0, 39.2]"] ;
49 -> 50 ;
51 [label="difficulty <= 9230692.0\ngini = 0.4\nsamples = 11\nvalue = [5.7, 17.1]"] ;
49 -> 51 ;
52 [label="nrg_limit <= 15005334.5\ngini = 0.5\nsamples = 8\nvalue = [5.7, 4.9]"] ;
51 -> 52 ;
53 [label="gini = -0.0\nsamples = 7\nvalue = [5.7, 0.0]"] ;
52 -> 53 ;
54 [label="gini = 0.0\nsamples = 1\nvalue = [0.0, 4.9]"] ;
52 -> 54 ;
55 [label="gini = 0.0\nsamples = 3\nvalue = [0.0, 12.2]"] ;
51 -> 55 ;
56 [label="nrg_limit <= 15002419.5\ngini = 0.3\nsamples = 69\nvalue = [68.5, 12.2]"] ;
46 -> 56 ;
57 [label="gini = -0.0\nsamples = 64\nvalue = [64.7, 0.0]"] ;
56 -> 57 ;
58 [label="difficulty <= 9283772.5\ngini = 0.4\nsamples = 5\nvalue = [3.8, 12.2]"] ;
56 -> 58 ;
59 [label="gini = 0.0\nsamples = 2\nvalue = [0.0, 12.2]"] ;
58 -> 59 ;
60 [label="gini = -0.0\nsamples = 3\nvalue = [3.8, 0.0]"] ;
58 -> 60 ;
61 [label="approx_nrg_reward <= 0.0\ngini = 0.5\nsamples = 33\nvalue = [28.3, 14.7]"] ;
1 -> 61 ;
62 [label="approx_nrg_reward <= 0.0\ngini = 0.3\nsamples = 6\nvalue = [2.5, 12.2]"] ;
61 -> 62 ;
63 [label="gini = 0.0\nsamples = 2\nvalue = [1.9, 0.0]"] ;
62 -> 63 ;
64 [label="approx_value <= 1.1\ngini = 0.1\nsamples = 4\nvalue = [0.6, 12.2]"] ;
62 -> 64 ;
65 [label="gini = 0.0\nsamples = 3\nvalue = [0.0, 12.2]"] ;
64 -> 65 ;
66 [label="gini = -0.0\nsamples = 1\nvalue = [0.6, 0.0]"] ;
64 -> 66 ;
67 [label="nrg_limit <= 15001471.5\ngini = 0.2\nsamples = 27\nvalue = [25.8, 2.4]"] ;
61 -> 67 ;
68 [label="gini = 0.0\nsamples = 24\nvalue = [24.5, 0.0]"] ;
67 -> 68 ;
69 [label="block_nrg_consumed <= 236100.0\ngini = 0.4\nsamples = 3\nvalue = [1.3, 2.4]"] ;
67 -> 69 ;
70 [label="nrg_limit <= 15001766.5\ngini = 0.3\nsamples = 2\nvalue = [0.6, 2.4]"] ;
69 -> 70 ;
71 [label="gini = 0.0\nsamples = 1\nvalue = [0.0, 2.4]"] ;
70 -> 71 ;
72 [label="gini = -0.0\nsamples = 1\nvalue = [0.6, 0.0]"] ;
70 -> 72 ;
73 [label="gini = -0.0\nsamples = 1\nvalue = [0.6, 0.0]"] ;
69 -> 73 ;
74 [label="approx_value <= 1.1\ngini = 0.4\nsamples = 98\nvalue = [82.9, 39.2]"] ;
0 -> 74 [labeldistance=2.5, labelangle=-45, headlabel="False"] ;
75 [label="block_time <= 15.5\ngini = 0.5\nsamples = 39\nvalue = [24.5, 29.4]"] ;
74 -> 75 ;
76 [label="gini = 0.0\nsamples = 3\nvalue = [0.0, 9.8]"] ;
75 -> 76 ;
77 [label="nrg_limit <= 14999799.0\ngini = 0.5\nsamples = 36\nvalue = [24.5, 19.6]"] ;
75 -> 77 ;
78 [label="approx_value <= 1.0\ngini = 0.4\nsamples = 14\nvalue = [8.8, 17.1]"] ;
77 -> 78 ;
79 [label="block_nrg_consumed <= 268972.2\ngini = 0.2\nsamples = 6\nvalue = [1.3, 9.8]"] ;
78 -> 79 ;
80 [label="block_size <= 3721.4\ngini = 0.1\nsamples = 5\nvalue = [0.6, 9.8]"] ;
79 -> 80 ;
81 [label="gini = 0.0\nsamples = 1\nvalue = [0.6, 0.0]"] ;
80 -> 81 ;
82 [label="gini = 0.0\nsamples = 4\nvalue = [0.0, 9.8]"] ;
80 -> 82 ;
83 [label="gini = -0.0\nsamples = 1\nvalue = [0.6, 0.0]"] ;
79 -> 83 ;
84 [label="approx_nrg_reward <= 0.0\ngini = 0.5\nsamples = 8\nvalue = [7.5, 7.3]"] ;
78 -> 84 ;
85 [label="block_time <= 20.3\ngini = 0.3\nsamples = 3\nvalue = [1.9, 7.3]"] ;
84 -> 85 ;
86 [label="gini = 0.0\nsamples = 2\nvalue = [0.0, 7.3]"] ;
85 -> 86 ;
87 [label="gini = -0.0\nsamples = 1\nvalue = [1.9, 0.0]"] ;
85 -> 87 ;
88 [label="gini = -0.0\nsamples = 5\nvalue = [5.7, 0.0]"] ;
84 -> 88 ;
89 [label="approx_value <= 1.0\ngini = 0.2\nsamples = 22\nvalue = [15.7, 2.4]"] ;
77 -> 89 ;
90 [label="gini = -0.0\nsamples = 16\nvalue = [12.6, 0.0]"] ;
89 -> 90 ;
91 [label="difficulty <= 9188945.5\ngini = 0.5\nsamples = 6\nvalue = [3.1, 2.4]"] ;
89 -> 91 ;
92 [label="gini = 0.0\nsamples = 1\nvalue = [0.0, 2.4]"] ;
91 -> 92 ;
93 [label="gini = -0.0\nsamples = 5\nvalue = [3.1, 0.0]"] ;
91 -> 93 ;
94 [label="difficulty <= 9602786.5\ngini = 0.2\nsamples = 59\nvalue = [58.4, 9.8]"] ;
74 -> 94 ;
95 [label="block_size <= 4665.6\ngini = 0.1\nsamples = 58\nvalue = [58.4, 4.9]"] ;
94 -> 95 ;
96 [label="difficulty <= 9164860.5\ngini = 0.1\nsamples = 57\nvalue = [58.4, 2.4]"] ;
95 -> 96 ;
97 [label="difficulty <= 9142014.5\ngini = 0.4\nsamples = 2\nvalue = [1.3, 2.4]"] ;
96 -> 97 ;
98 [label="gini = 0.0\nsamples = 1\nvalue = [1.3, 0.0]"] ;
97 -> 98 ;
99 [label="gini = 0.0\nsamples = 1\nvalue = [0.0, 2.4]"] ;
97 -> 99 ;
100 [label="gini = 0.0\nsamples = 55\nvalue = [57.2, 0.0]"] ;
96 -> 100 ;
101 [label="gini = 0.0\nsamples = 1\nvalue = [0.0, 2.4]"] ;
95 -> 101 ;
102 [label="gini = 0.0\nsamples = 1\nvalue = [0.0, 4.9]"] ;
94 -> 102 ;
}