digraph Tree {
node [shape=box, style="rounded", color="black", fontname=helvetica] ;
edge [fontname=helvetica] ;
0 [label="approx_value <= 1.0\ngini = 0.5\nsamples = 313\nvalue = [243.5, 268.8]"] ;
1 [label="approx_nrg_reward <= 0.0\ngini = 0.4\nsamples = 51\nvalue = [45.5, 15.2]"] ;
0 -> 1 [labeldistance=2.5, labelangle=45, headlabel="True"] ;
2 [label="difficulty <= 9446753.0\ngini = 0.2\nsamples = 48\nvalue = [45.5, 7.6]"] ;
1 -> 2 ;
3 [label="gini = 0.0\nsamples = 30\nvalue = [29.3, 0.0]"] ;
2 -> 3 ;
4 [label="nrg_limit <= 14996531.0\ngini = 0.4\nsamples = 18\nvalue = [16.2, 7.6]"] ;
2 -> 4 ;
5 [label="gini = 0.0\nsamples = 1\nvalue = [0.0, 2.5]"] ;
4 -> 5 ;
6 [label="approx_value <= 1.0\ngini = 0.4\nsamples = 17\nvalue = [16.2, 5.1]"] ;
4 -> 6 ;
7 [label="gini = 0.0\nsamples = 11\nvalue = [11.2, 0.0]"] ;
6 -> 7 ;
8 [label="approx_nrg_reward <= 0.0\ngini = 0.5\nsamples = 6\nvalue = [5.0, 5.1]"] ;
6 -> 8 ;
9 [label="gini = 0.0\nsamples = 3\nvalue = [3.7, 0.0]"] ;
8 -> 9 ;
10 [label="approx_value <= 1.0\ngini = 0.3\nsamples = 3\nvalue = [1.2, 5.1]"] ;
8 -> 10 ;
11 [label="gini = 0.0\nsamples = 2\nvalue = [0.0, 5.1]"] ;
10 -> 11 ;
12 [label="gini = -0.0\nsamples = 1\nvalue = [1.2, 0.0]"] ;
10 -> 12 ;
13 [label="gini = -0.0\nsamples = 3\nvalue = [0.0, 7.6]"] ;
1 -> 13 ;
14 [label="approx_nrg_reward <= 0.0\ngini = 0.5\nsamples = 262\nvalue = [198.1, 253.6]"] ;
0 -> 14 [labeldistance=2.5, labelangle=-45, headlabel="False"] ;
15 [label="difficulty <= 9603556.5\ngini = 0.5\nsamples = 145\nvalue = [100.3, 180.0]"] ;
14 -> 15 ;
16 [label="nrg_limit <= 14998842.5\ngini = 0.5\nsamples = 120\nvalue = [96.5, 81.1]"] ;
15 -> 16 ;
17 [label="difficulty <= 9406351.5\ngini = 0.4\nsamples = 19\nvalue = [11.8, 33.0]"] ;
16 -> 17 ;
18 [label="block_size <= 3372.9\ngini = 0.1\nsamples = 12\nvalue = [2.5, 33.0]"] ;
17 -> 18 ;
19 [label="block_size <= 3207.6\ngini = 0.2\nsamples = 8\nvalue = [2.5, 15.2]"] ;
18 -> 19 ;
20 [label="approx_nrg_reward <= 0.0\ngini = 0.1\nsamples = 7\nvalue = [0.6, 15.2]"] ;
19 -> 20 ;
21 [label="gini = 0.0\nsamples = 4\nvalue = [0.0, 10.1]"] ;
20 -> 21 ;
22 [label="nrg_limit <= 14997106.0\ngini = 0.2\nsamples = 3\nvalue = [0.6, 5.1]"] ;
20 -> 22 ;
23 [label="gini = 0.0\nsamples = 1\nvalue = [0.6, 0.0]"] ;
22 -> 23 ;
24 [label="gini = 0.0\nsamples = 2\nvalue = [0.0, 5.1]"] ;
22 -> 24 ;
25 [label="gini = -0.0\nsamples = 1\nvalue = [1.9, 0.0]"] ;
19 -> 25 ;
26 [label="gini = 0.0\nsamples = 4\nvalue = [0.0, 17.8]"] ;
18 -> 26 ;
27 [label="gini = 0.0\nsamples = 7\nvalue = [9.3, 0.0]"] ;
17 -> 27 ;
28 [label="nrg_limit <= 15001695.5\ngini = 0.5\nsamples = 101\nvalue = [84.7, 48.2]"] ;
16 -> 28 ;
29 [label="approx_nrg_reward <= 0.0\ngini = 0.4\nsamples = 86\nvalue = [74.7, 27.9]"] ;
28 -> 29 ;
30 [label="approx_nrg_reward <= 0.0\ngini = 0.5\nsamples = 55\nvalue = [46.7, 25.4]"] ;
29 -> 30 ;
31 [label="approx_nrg_reward <= 0.0\ngini = 0.4\nsamples = 51\nvalue = [44.8, 17.7]"] ;
30 -> 31 ;
32 [label="approx_nrg_reward <= 0.0\ngini = 0.5\nsamples = 18\nvalue = [13.7, 10.1]"] ;
31 -> 32 ;
33 [label="difficulty <= 9188153.5\ngini = 0.3\nsamples = 14\nvalue = [11.8, 2.5]"] ;
32 -> 33 ;
34 [label="gini = 0.0\nsamples = 1\nvalue = [0.0, 2.5]"] ;
33 -> 34 ;
35 [label="gini = -0.0\nsamples = 13\nvalue = [11.8, 0.0]"] ;
33 -> 35 ;
36 [label="block_nrg_consumed <= 78922.9\ngini = 0.3\nsamples = 4\nvalue = [1.9, 7.6]"] ;
32 -> 36 ;
37 [label="gini = 0.0\nsamples = 2\nvalue = [1.9, 0.0]"] ;
36 -> 37 ;
38 [label="gini = 0.0\nsamples = 2\nvalue = [0.0, 7.6]"] ;
36 -> 38 ;
39 [label="block_size <= 2860.0\ngini = 0.3\nsamples = 33\nvalue = [31.1, 7.6]"] ;
31 -> 39 ;
40 [label="gini = 0.0\nsamples = 18\nvalue = [18.7, 0.0]"] ;
39 -> 40 ;
41 [label="difficulty <= 9480289.0\ngini = 0.5\nsamples = 15\nvalue = [12.5, 7.6]"] ;
39 -> 41 ;
42 [label="gini = 0.0\nsamples = 10\nvalue = [10.0, 0.0]"] ;
41 -> 42 ;
43 [label="block_size <= 2898.0\ngini = 0.4\nsamples = 5\nvalue = [2.5, 7.6]"] ;
41 -> 43 ;
44 [label="gini = 0.0\nsamples = 2\nvalue = [0.0, 7.6]"] ;
43 -> 44 ;
45 [label="gini = 0.0\nsamples = 3\nvalue = [2.5, 0.0]"] ;
43 -> 45 ;
46 [label="block_size <= 3239.8\ngini = 0.3\nsamples = 4\nvalue = [1.9, 7.6]"] ;
30 -> 46 ;
47 [label="nrg_limit <= 15000313.5\ngini = 0.1\nsamples = 3\nvalue = [0.6, 7.6]"] ;
46 -> 47 ;
48 [label="gini = 0.0\nsamples = 2\nvalue = [0.0, 7.6]"] ;
47 -> 48 ;
49 [label="gini = -0.0\nsamples = 1\nvalue = [0.6, 0.0]"] ;
47 -> 49 ;
50 [label="gini = -0.0\nsamples = 1\nvalue = [1.2, 0.0]"] ;
46 -> 50 ;
51 [label="block_size <= 3794.0\ngini = 0.2\nsamples = 31\nvalue = [28.0, 2.5]"] ;
29 -> 51 ;
52 [label="gini = 0.0\nsamples = 28\nvalue = [26.8, 0.0]"] ;
51 -> 52 ;
53 [label="nrg_limit <= 14999421.5\ngini = 0.4\nsamples = 3\nvalue = [1.2, 2.5]"] ;
51 -> 53 ;
54 [label="gini = -0.0\nsamples = 2\nvalue = [1.2, 0.0]"] ;
53 -> 54 ;
55 [label="gini = 0.0\nsamples = 1\nvalue = [0.0, 2.5]"] ;
53 -> 55 ;
56 [label="block_nrg_consumed <= 111108.5\ngini = 0.4\nsamples = 15\nvalue = [10.0, 20.3]"] ;
28 -> 56 ;
57 [label="difficulty <= 9228096.0\ngini = 0.5\nsamples = 8\nvalue = [6.9, 5.1]"] ;
56 -> 57 ;
58 [label="gini = 0.0\nsamples = 2\nvalue = [0.0, 5.1]"] ;
57 -> 58 ;
59 [label="gini = -0.0\nsamples = 6\nvalue = [6.9, 0.0]"] ;
57 -> 59 ;
60 [label="approx_nrg_reward <= 0.0\ngini = 0.3\nsamples = 7\nvalue = [3.1, 15.2]"] ;
56 -> 60 ;
61 [label="block_time <= 14.5\ngini = 0.1\nsamples = 5\nvalue = [1.2, 15.2]"] ;
60 -> 61 ;
62 [label="gini = 0.0\nsamples = 2\nvalue = [1.2, 0.0]"] ;
61 -> 62 ;
63 [label="gini = 0.0\nsamples = 3\nvalue = [0.0, 15.2]"] ;
61 -> 63 ;
64 [label="gini = -0.0\nsamples = 2\nvalue = [1.9, 0.0]"] ;
60 -> 64 ;
65 [label="block_nrg_consumed <= 230741.7\ngini = 0.1\nsamples = 25\nvalue = [3.7, 98.9]"] ;
15 -> 65 ;
66 [label="approx_nrg_reward <= 0.0\ngini = 0.1\nsamples = 24\nvalue = [3.1, 98.9]"] ;
65 -> 66 ;
67 [label="gini = 0.0\nsamples = 8\nvalue = [0.0, 33.0]"] ;
66 -> 67 ;
68 [label="difficulty <= 9641303.5\ngini = 0.1\nsamples = 16\nvalue = [3.1, 65.9]"] ;
66 -> 68 ;
69 [label="gini = 0.0\nsamples = 1\nvalue = [1.2, 0.0]"] ;
68 -> 69 ;
70 [label="block_nrg_consumed <= 105524.1\ngini = 0.1\nsamples = 15\nvalue = [1.9, 65.9]"] ;
68 -> 70 ;
71 [label="gini = 0.0\nsamples = 1\nvalue = [1.2, 0.0]"] ;
70 -> 71 ;
72 [label="approx_value <= 1.0\ngini = 0.0\nsamples = 14\nvalue = [0.6, 65.9]"] ;
70 -> 72 ;
73 [label="gini = 0.0\nsamples = 1\nvalue = [0.6, 0.0]"] ;
72 -> 73 ;
74 [label="gini = 0.0\nsamples = 13\nvalue = [0.0, 65.9]"] ;
72 -> 74 ;
75 [label="gini = 0.0\nsamples = 1\nvalue = [0.6, 0.0]"] ;
65 -> 75 ;
76 [label="nrg_limit <= 14998837.5\ngini = 0.5\nsamples = 117\nvalue = [97.8, 73.5]"] ;
14 -> 76 ;
77 [label="block_nrg_consumed <= 274500.0\ngini = 0.3\nsamples = 17\nvalue = [8.1, 33.0]"] ;
76 -> 77 ;
78 [label="difficulty <= 9224428.0\ngini = 0.3\nsamples = 16\nvalue = [6.9, 33.0]"] ;
77 -> 78 ;
79 [label="gini = 0.0\nsamples = 3\nvalue = [3.7, 0.0]"] ;
78 -> 79 ;
80 [label="nrg_limit <= 14997539.5\ngini = 0.2\nsamples = 13\nvalue = [3.1, 33.0]"] ;
78 -> 80 ;
81 [label="gini = 0.0\nsamples = 5\nvalue = [0.0, 20.3]"] ;
80 -> 81 ;
82 [label="approx_nrg_reward <= 0.0\ngini = 0.3\nsamples = 8\nvalue = [3.1, 12.7]"] ;
80 -> 82 ;
83 [label="gini = 0.0\nsamples = 2\nvalue = [1.9, 0.0]"] ;
82 -> 83 ;
84 [label="block_time <= 21.6\ngini = 0.2\nsamples = 6\nvalue = [1.2, 12.7]"] ;
82 -> 84 ;
85 [label="gini = 0.0\nsamples = 4\nvalue = [0.0, 10.1]"] ;
84 -> 85 ;
86 [label="approx_nrg_reward <= 0.0\ngini = 0.4\nsamples = 2\nvalue = [1.2, 2.5]"] ;
84 -> 86 ;
87 [label="gini = 0.0\nsamples = 1\nvalue = [1.2, 0.0]"] ;
86 -> 87 ;
88 [label="gini = 0.0\nsamples = 1\nvalue = [0.0, 2.5]"] ;
86 -> 88 ;
89 [label="gini = 0.0\nsamples = 1\nvalue = [1.2, 0.0]"] ;
77 -> 89 ;
90 [label="difficulty <= 9642722.0\ngini = 0.4\nsamples = 100\nvalue = [89.7, 40.6]"] ;
76 -> 90 ;
91 [label="block_size <= 3885.5\ngini = 0.2\nsamples = 91\nvalue = [87.2, 12.7]"] ;
90 -> 91 ;
92 [label="difficulty <= 9258880.5\ngini = 0.1\nsamples = 79\nvalue = [77.9, 5.1]"] ;
91 -> 92 ;
93 [label="block_size <= 3682.9\ngini = 0.5\nsamples = 9\nvalue = [5.6, 5.1]"] ;
92 -> 93 ;
94 [label="gini = 0.0\nsamples = 1\nvalue = [0.0, 5.1]"] ;
93 -> 94 ;
95 [label="gini = 0.0\nsamples = 8\nvalue = [5.6, 0.0]"] ;
93 -> 95 ;
96 [label="gini = 0.0\nsamples = 70\nvalue = [72.2, 0.0]"] ;
92 -> 96 ;
97 [label="block_size <= 3895.1\ngini = 0.5\nsamples = 12\nvalue = [9.3, 7.6]"] ;
91 -> 97 ;
98 [label="gini = 0.0\nsamples = 1\nvalue = [0.0, 5.1]"] ;
97 -> 98 ;
99 [label="block_size <= 4239.7\ngini = 0.3\nsamples = 11\nvalue = [9.3, 2.5]"] ;
97 -> 99 ;
100 [label="gini = 0.0\nsamples = 8\nvalue = [8.1, 0.0]"] ;
99 -> 100 ;
101 [label="block_time <= 25.1\ngini = 0.4\nsamples = 3\nvalue = [1.2, 2.5]"] ;
99 -> 101 ;
102 [label="gini = 0.0\nsamples = 1\nvalue = [0.0, 2.5]"] ;
101 -> 102 ;
103 [label="gini = -0.0\nsamples = 2\nvalue = [1.2, 0.0]"] ;
101 -> 103 ;
104 [label="block_nrg_consumed <= 154875.0\ngini = 0.2\nsamples = 9\nvalue = [2.5, 27.9]"] ;
90 -> 104 ;
105 [label="gini = 0.0\nsamples = 1\nvalue = [1.2, 0.0]"] ;
104 -> 105 ;
106 [label="block_nrg_consumed <= 255230.8\ngini = 0.1\nsamples = 8\nvalue = [1.2, 27.9]"] ;
104 -> 106 ;
107 [label="nrg_limit <= 15002117.5\ngini = 0.0\nsamples = 7\nvalue = [0.6, 27.9]"] ;
106 -> 107 ;
108 [label="gini = 0.0\nsamples = 5\nvalue = [0.0, 25.4]"] ;
107 -> 108 ;
109 [label="difficulty <= 9985698.0\ngini = 0.3\nsamples = 2\nvalue = [0.6, 2.5]"] ;
107 -> 109 ;
110 [label="gini = 0.0\nsamples = 1\nvalue = [0.6, 0.0]"] ;
109 -> 110 ;
111 [label="gini = 0.0\nsamples = 1\nvalue = [0.0, 2.5]"] ;
109 -> 111 ;
112 [label="gini = -0.0\nsamples = 1\nvalue = [0.6, 0.0]"] ;
106 -> 112 ;
}